[{"weights": [[1.6870460281337236, -0.5055889856364312, -4.557981606747128, -0.7854748822451387, -1.9302191287340758], [-0.5797575746502537, 1.867761593766434, 0.9482049443430361, -0.21117827463915823, -0.0514468918208299], [-0.5495576382695323, 0.7667099077278797, 1.5895988468565314, 0.2302191864759721, 0.9022573224311383], [2.0814004018870707, -3.8289168742785336, 0.23120037241314548, -1.3947604306985808, -5.409023146220135], [-4.010642459410552, 4.983060109717136, -5.167574264657693, -0.3020327847761747, -1.0212434877315786], [1.6753340560104648, -1.47442731028281, 9.24959053167098, -1.7474550277675045, 11.211589879411235], [3.0960115657722067, 0.5807850543695219, 4.3165214080841, 0.48942092882507504, -2.745229762721057], [-4.803732529872095, 1.5747186885805675, -5.366388200050304, 0.06258835549092792, 5.606474564956031]], "bias": [[-0.19477622594706342, 1.8722566169278196, -2.008817609417504, -1.060155606781114, -1.5327170085938528]]}, {"weights": [[-0.5955449029084262, -0.17747985422072268, 6.142926131612475], [2.7373188901963617, -6.319798216739633, -1.292379330439044], [-3.456114055639004, 4.4331007927623185, 7.862431307877274], [-1.534022520207198, 3.418360004632064, 0.5837014035751111], [1.0395209684565339, 5.632873881575269, -8.734567713397373]], "bias": [[0.5326890273585738, -2.7135700836049526, -2.88227583975971]]}, {"weights": [[1.5841995786841898, 1.5842076452785623, 1.5842078377393123, 1.5841951879420646], [1.6595747436297204, 1.659580219156974, 1.659580349796348, 1.6595717631963296], [2.37037627161195, 2.3704488958597922, 2.370450628680052, 2.3703367441181853]], "bias": [[2.4450438687129834, 2.4451138613902437, 2.4451155314227098, 2.4450057735728765]]}]