[{"weights": [[-0.9176967238134419, 1.512612555067563, 1.9235959954436501, 1.1993268802371824, -3.4656778338548566, -0.974352226040117, -2.8016176847427436, 7.170775771133466, -0.5891943987021949, 3.2228246087956394, 3.1480237452710447, -2.33431625891566, 2.7565126815680605, -2.0609683107892374, 0.8093359518698645, -1.1831085886689083], [1.659943614647299, -0.7037274712091318, -0.7418714646755932, 0.8111205435267269, 0.6248943558554053, 1.2472593370277791, -1.0392394074425833, -1.5229166667453229, 0.8729909852089538, -0.6280862381475235, -0.7757734489632493, 0.22993457191854064, 0.21003760016224407, 1.8126708727575407, 1.3914068012021108, -0.9304716876146015], [-0.8157734239277494, 1.6149629202386089, 0.03497009486632653, -1.6421518151510937, 0.8679633041284384, -1.8635909415459926, 1.0933535113504185, -0.6234716639775953, -1.3871089359099542, 0.42715981683992654, 2.2388164558591543, 2.8831554308964544, -3.041215338005852, -0.797259189094644, -1.2150755311449282, 2.0584919448553314], [3.9137103176380155, -3.351182254783535, -2.651110159562374, 1.131573441091509, 5.102265967247967, -1.3820155286301108, -2.1416551616517276, -3.2740984505627737, 2.172978570057948, -8.781510534816233, -1.2747512195873736, -8.953626621401993, 3.3801367781042155, -2.944118383419094, -2.318297928528358, -1.742191776167329], [-3.4446687214271994, 7.773958683774721, -5.821639923404203, 0.2543843930045154, -3.9320623839555675, -3.479208464178859, -0.8689394376104733, -4.303839548328808, -0.5806583965234678, -3.6764454246433997, -4.2435621068786835, 2.3928604021247044, -4.313752797403333, -3.8258024310792025, 1.8895819358849433, -0.4293629099685534], [-1.5549090644021704, -5.9211618676394275, 1.9049906779954509, 1.9053719822450736, 2.4382595318792135, 2.9403735715747907, 13.98023323927917, -10.361144166938788, -0.12405584643270902, -0.10034004349297297, -8.45480882759759, 1.3459781411588128, -3.5484927062757956, 5.909877974005733, 0.02210766423899089, 0.27176318884428896], [2.771357278404075, 0.45383111712842006, 0.5038335112722548, 1.2987043793640973, 2.1187987522073155, 6.696091826910081, -2.849433658572938, 1.2529345554743245, -0.7672264953654321, 2.5185290424249462, -5.836529506998852, -3.3552227849410095, -1.219673328343529, 1.9441512547850008, 0.5977750248381775, -0.04575094660151004], [-0.5170970366964379, 1.049983012025223, -1.9888139249141188, 1.8018436174829622, -0.4171031901296433, 2.0440131925105667, 8.530763861333595, -7.855300457284401, -1.2047658445170524, -1.90492212290923, -5.296900444469837, -1.1759255639571038, -1.9029626642236839, 6.381357748925183, 4.065013392208904, -1.442461972718069]], "bias": [[-0.28659388622734855, 2.075986361559198, 0.5214630230511864, -0.8547996894715298, -2.1078468288886114, -1.0430833956787797, -1.9674974628228838, 5.048347822665625, -1.3543220984447377, 2.8258634014864477, 3.9308411051571985, 1.5545261844334584, 0.2800613245492352, -1.4279001759648842, 0.7946303704532054, -0.4451362209942553]]}, {"weights": [[1.074147564269548, -0.5600423822160369, 0.559907559652497, 0.2268095929505615, -0.6710355996039004, -1.1859506772347304, -0.3683656337688001, 1.502410486702168, 0.04666268842539555, 0.07093816651494927, -3.587504443759435, 1.3156372362044162], [2.719011813798215, 2.6574979850267573, 4.094556435005377, -1.8318791776381156, -1.5837123930344355, -2.6093692181575427, 0.7794968603411081, -2.181646578326241, -5.060277630863222, -0.3462383342949207, 2.4319684483083686, -5.311784505898373], [-1.9109843120583816, 0.16869722546054144, -4.4911604210994795, -1.5551283786866261, 0.8832142738288875, 0.5394064330663338, 0.28854176706509205, -0.7859196941951937, 1.0005541981557824, -0.9054632924059625, -0.021936721068319467, 4.730932856663943], [0.3113028479587694, -1.794215802216309, -0.19216046347442584, -0.03187119570373365, 0.8163660829656627, -2.2997477411248304, -1.3667622861597837, 2.44417712453319, 0.3234428994372982, -1.7685870239697568, 1.8074630783562584, 0.9028286584124113], [-1.7646286562031033, -2.439008883939092, -2.049334554211952, 0.8570521669213331, 0.0741990390325379, 2.0945470508460975, -0.6553654389107232, 1.6164539453765852, 2.5371597762867557, 1.2166311261358236, -3.2914910926269383, 1.7513294117022045], [0.18824448265500052, 0.9213888752515647, -2.5461431111748385, 3.674614267133, 0.8403854105607584, 2.5826938340877796, -2.507154063482174, 1.6438102807717887, 1.9604827479095333, 1.9618965022120263, 1.4596184073870062, 2.380477431488858], [-3.8199738769146143, -0.9160430038045274, 0.814661199631887, -1.4767864069746615, 2.638864279160733, -3.8020835944953206, 0.3871843914607205, 10.389718589488561, 8.179218596033243, 0.6079472808876139, 0.24487540236407423, -0.6703752658581422], [1.2524392494585548, 1.3324605363916358, -2.296140555309253, 1.0007227031295667, -2.3793199778953475, 0.980524423594205, -1.2914155190941248, -3.066343052390814, -9.953489381720463, -1.637513320984087, 0.5694721664081508, 2.8621244141357836], [1.0326430489476828, 0.2977136119471378, -0.5175462767354975, 0.5263164808253316, -0.6452632281690115, -0.03489464170414262, -2.7782714433449143, -2.948793097178966, 0.9003569919167008, -0.014912044054363525, -1.98488219478152, -0.015247292839057826], [-0.9242052307391553, 1.0828116354506863, -5.349542583821364, 1.5285496165135461, 0.6026150493783187, 1.7942677767387456, -1.1498902655669543, -0.6929939260077284, 1.1726982205278786, -0.5496352702660564, 4.115714845047447, 4.514239558197004], [2.5349477415476755, 1.8109650453480393, -3.802840381725352, -3.672196919781131, -3.3621250338581614, -3.567565559680018, 3.3256557468592396, -3.0355085142347744, -5.0604156676824195, -2.983311312403143, 3.1018348154079076, 4.729342335356694], [4.964126903041499, 6.834522621297981, 1.1361849471813528, -3.157461657858439, -1.2936655493320093, -2.481698755395599, 2.822446025051478, -0.544039646394194, 2.044326109015165, -0.03700781960188153, 0.6896017211004214, -1.2721819642753025], [2.470554829394216, -1.1345788286213523, -3.61645444180578, 1.0115542580117125, 0.05546001376195175, 2.540701364553416, -2.0268946085080572, -1.453415937780531, -2.516136024427179, -0.8844807512309931, -2.0822488943523987, 3.9244825026066184], [2.153617503815999, 0.13776848027475022, -1.8507169132644572, 0.7891785297910553, -0.14957749872385454, 0.9227782023534397, -2.6096795775636417, 3.896116823985163, 7.02367952619402, 1.5689398989863368, 1.700300153135095, 0.8433720607184998], [1.7887123581600097, -0.3764620513684891, -0.24501747940184668, -0.4270961159378647, 0.42471371592561974, -0.29731006245311703, -1.072455956617588, 4.391825700417726, 0.2977677172538088, -1.8786197310797905, 3.138268267199108, -1.4310252358265143], [0.1692143400709644, 2.295437695538428, 1.1580114007658886, 0.838070127061338, -1.0415078651073242, 1.4288503530199317, 0.06697307870763493, -1.2241558354752258, 1.4257697593960494, 1.8376053027654788, -3.097521793630665, -0.8530259525406086]], "bias": [[0.8049869687618255, -2.140549898249728, 0.2547620592508502, -0.19037069887095914, 0.34592083637255105, 0.983165593741704, 2.970282895683579, 4.459933867312072, -2.629523133121438, -2.366550156379642, 3.144388342653541, 1.0294858270034826]]}, {"weights": [[1.3754325264452936, -1.45458168526951, -0.016511388453362703, 0.004026374446771562, -0.015557427977542495, 0.046010533961000605, 0.0013024384275854384, -0.11657552586791922, 0.003994441302745158], [-1.3300178218706027, -2.4865070613340357, 0.007656437534096084, 1.5695883412985001, 0.00944710101315546, 0.019562612902776673, -0.004193410772026084, -0.004777606004258745, -0.009956704641530933], [4.240801305074385, -0.013129576256154843, -0.0017250487908579762, -0.029118378671852317, -0.10336365544651886, -2.0543707071444324, -0.02972978358490508, 0.006864252654018759, -0.02267124462671696], [-0.10779264313061457, -0.7091022690032369, 0.02126647723614498, 0.22991823860194904, -1.2261588384487352, 1.4216517920111427, -0.03282379348121437, -0.15164580425903393, 0.004826494433935069], [0.06450015313962222, -0.01154626232932825, -0.016767157989024385, 0.003880657321979343, -0.006268175755069485, 0.07292305749592308, 0.08881264859012361, -0.12553807635142133, 0.007092932183704338], [4.131743306547696, 0.44415228724156725, -0.03368111530135625, 0.0029519809028849355, -0.027434960712796455, -0.12234799489510317, 0.01534919212727521, 0.040920164898649344, -0.0028527946453435044], [-0.009617220992561196, 0.5137741692423731, -0.003752827194636171, 0.23263656731405596, -1.2591977005538917, 1.3921589362611655, -0.008876823582254535, -0.11263501897128413, 0.004828095381600232], [-0.004433599785164548, 0.005772420879119492, 0.006431651706017314, 0.0005282532531511425, -0.007319724687859516, -0.010950170666897727, 1.142352452677735, 0.0029791678502565358, -1.3477619210454734], [-0.04369624745731993, 0.015376329629892372, -0.0032103225040104448, -0.00012141412050164448, -0.002678364384504485, -0.031888389130044596, -1.225988123482133, 1.0848898988569184, 0.0010886455446232992], [0.12031777406395663, -2.7319127906841105, -0.030921858863144594, 1.8090863517543114, -1.5752093420238755, -0.005418549264014189, 0.010250844791571458, 0.020751303476236525, 0.00029839438227725293], [-0.051034865908649855, 3.216079489856102, -0.8804762586381482, 0.004354003248791008, 0.0022373504977954367, -0.5783638695542395, 0.00468230267609336, 0.004474404746464004, -0.0019928785049594987], [4.2277504599847395, -0.01617339825077857, 0.0039035027923486937, -0.02913512598291022, -2.587131920775547, -0.12612964418532494, -0.03302182839291046, 0.0086947717338308, -0.02246978527752742]], "bias": [[4.150097238715814, -2.781393775491857, 0.839570763651287, 3.3739470098958577, 0.9112948386810561, 2.3779823993291576, 0.007880043346977337, 1.0958515164948373, 1.3366744125893695]]}]