[{"weights": [[0.21341710120476376, 0.4038671827784826, 0.4769284392171672, -1.3899305406494395, -1.7861723001654746], [3.583081225176518, -1.0257517104024978, -0.19296024064158282, 1.0383059379630308, 0.13513455692560886], [-1.6142608973346957, -0.9508771518469434, 0.5808167097746512, -1.748083815470308, 0.5617238800013928], [-1.0448981868404401, 4.256404219558245, -9.587736578843753, 1.9809886455471484, -0.32206978591431185], [0.7041832665479384, 0.5762112779389501, -1.0530463776489858, 1.4349285809332795, 0.20332557850399985], [-8.551878529939566, -3.127063888691599, 1.1359815239949218, 5.202573418594145, 0.7695814234176672], [-5.6449154362355465, -1.0507216630617333, -0.22527334898752233, -0.5423723892137112, 1.6118759426156606], [5.585120985059345, -1.8219795480781198, 1.5449732083349415, -1.960181032168141, -1.2721460749710616]], "bias": [[2.512715258842048, -1.9205086978864243, 2.0763052185844995, -0.9716425681088529, -0.6513420878531898]]}, {"weights": [[-3.2855239661462456, 7.5801132253071115, 3.00207316334113], [2.276804558618383, -0.2588837954558843, 2.453572842860975], [-5.4420259464772265, -3.1333323316772894, -1.6288094732128098], [5.868279790238014, -0.3181975286414589, -1.0488591079197078], [-0.3376441591154083, -2.8188203856452994, 0.14206355443215812]], "bias": [[-1.0228324128598876, 1.371370756926056, -2.0013257597889513]]}, {"weights": [[1.978273886313914], [-2.1666826976441858], [1.7885483999425096]], "bias": [[5.912926870134666]]}]