[
  {
    "weights": [
      [
        -0.6629949616920868, -1.2773670663767962, -0.9217242187952327,
        0.278124290488479, -0.21873394372360824
      ],
      [
        -0.29672675008628935, -0.1460951393040904, -0.15313691955215122,
        -0.040926364366666794, 1.3602667779982849
      ],
      [
        -0.311641674337142, -1.9601320534506474, 0.3393901078121794,
        0.26115151481069093, -1.0177337448362205
      ],
      [
        1.672164695016359, 7.150810791695439, 2.555958767525008,
        -0.39370772263935483, 1.3394381665214619
      ],
      [
        0.08946788085137444, 2.2898433131709903, -0.6545818688043334,
        -0.11309393595280981, 0.049016944621704896
      ],
      [
        -0.1685574550032418, -1.5650153926702703, 2.6854554085073867,
        0.025142927238114243, -3.1887346494036533
      ],
      [
        -1.1476178722639734, 0.04011028825552001, 2.851428990960341,
        0.6756530606527718, -3.806005165775226
      ],
      [
        1.1127546755806506, -3.0727563770524853, -2.9403334036231166,
        -0.47860489895039, 4.681220428740819
      ]
    ],
    "bias": [
      [
        -0.35007835324740305, -1.6382016208824144, -1.0311059923941848,
        -0.28260457276347195, 0.6498501764236222
      ]
    ]
  },
  {
    "weights": [
      [1.1389447390506269, -0.529536526195478, 1.552050026629485],
      [0.8753233010216952, -4.025159394026872, -2.8504035112559643],
      [1.2407903673080973, -1.8407355591322718, -3.5906478626872245],
      [-0.2796928686635929, -0.11970509338532467, -0.5997541104082725],
      [-0.5752411149685397, -1.1473699109954383, 5.472563729564366]
    ],
    "bias": [[-0.9842593780077965, -0.23549955323577806, 0.2534822287022223]]
  },
  {
    "weights": [
      [
        -1.3208777905404605, -1.3212551475948722, -1.321418213784049,
        -1.3209223962494545
      ],
      [
        -1.1334213449620623, -1.1335903436602428, -1.1336624059088654,
        -1.133441252474675
      ],
      [
        -1.907221131126885, -1.9069340852518644, -1.9068008742976608,
        -1.907186649335476
      ]
    ],
    "bias": [
      [
        1.7267679132780223, 1.726286505609412, 1.7260684838397435,
        1.726710396495612
      ]
    ]
  }
]
