[
  {
    "weights": [
      [
        3.047830657541241, 3.398306921109764, -1.373327422109383,
        -1.2791574190064068, -3.8578074924833907, -5.092682705264545,
        -1.165823767906115, -3.7180226294073435, -0.2711989180040425,
        1.110766639393358, 1.3116515348500124, -0.9043853620275074,
        2.685970093510358, 0.41254389382300816, -3.3872113893309326,
        -1.0090882394460616
      ],
      [
        0.33449061041689004, -1.1966391182445835, 0.1005729638552287,
        2.112151408317903, 0.7853697795412558, 1.7777967329084488,
        1.145007706252644, -0.5489381623231642, -0.5833873038040149,
        -0.5143223381785113, -0.8875044260230964, -0.2712644128462252,
        0.7130249236765009, -1.620816626723541, 0.3112416189345392,
        -1.5140145231501896
      ],
      [
        -1.3977474397577367, 0.4196393181665129, -0.297757143110038,
        -0.5065792586963201, 1.018971201056219, -0.5669287212869755,
        -0.006645270811610602, 1.4968778271341883, 0.47366222660004514,
        -1.2160275887490724, 0.6142866993342954, 0.9512948825292975,
        -3.825034695985485, 1.6546234604151067, 0.16880885541469434,
        0.7922457066267595
      ],
      [
        -0.2055767227807727, -0.8244953461692974, 4.608917486211752,
        0.9213546437886909, -2.6163125390950794, 3.553127399817774,
        -2.1012352361012194, 2.9454310061491094, -3.4037037588974908,
        4.630134460768188, 4.647645534374792, -2.1063114972517143,
        2.819502012380324, -2.5610052359535986, 7.081916931567048,
        1.263067881089367
      ],
      [
        2.685568552724837, -3.4902081067331845, -8.353656068855747,
        -3.623988845247718, 5.522452079309878, -0.40072096026795423,
        -0.3899414290955779, 2.0347526623332235, -5.38619895205666,
        -1.67653002371546, 3.215471285957941, -0.23464074252457237,
        -5.9684141290330945, 0.6204070238286766, 4.079231541587279,
        -0.7507729920624363
      ],
      [
        -4.039111855787737, -5.271027688125788, 1.901914205212347,
        -0.4787883362509404, 7.752111510105395, 9.377541558040683,
        3.268904079477112, 8.484650043105203, 9.792801375596714,
        5.051778312780653, -6.790844604099475, -1.7654358899084839,
        1.7944615178481904, -1.1151312271780691, 0.5919258910924772,
        -0.5738826987563805
      ],
      [
        -1.4433049291734423, -1.6201981826989524, -2.697382319572306,
        -3.227981718049919, -0.3476547409854537, 4.55277035417435,
        3.1511796157324965, -1.8476147279964708, -1.9981411939315468,
        0.13882196326087148, 0.0977811582591771, -2.1709724142774447,
        9.101568108449786, -1.0095580233693269, -2.1624800413402148,
        -0.8272649175486659
      ],
      [
        -0.3272621940445145, -1.1093961155605456, -0.5253008259373224,
        3.409164075061787, 6.486689623752198, 1.0096501095320995,
        2.469189252701895, 3.9641879305190253, 7.873786927778929,
        0.6417546262730612, -0.2939917088027785, -0.9502539915607627,
        0.9660996484942425, -4.494615500757232, 1.9591782357616438,
        -0.11878015440484344
      ]
    ],
    "bias": [
      [
        0.9125201726826235, 3.1336549894409402, -0.9504730123170952,
        0.2657224485139509, -2.2503720906943907, -4.585415298953102,
        -0.3929737315626253, -2.7423487896434264, -1.1009621974620916,
        -1.1117968547628885, 1.7106777340026156, 0.4132095698395261,
        -1.2537196043293513, 0.267566306919129, -1.872769738226411,
        -0.7408335106751036
      ]
    ]
  },
  {
    "weights": [
      [
        -0.2111171507234316, 0.16476891264200988, 1.2589840850150853,
        -1.0135883163104615, -3.5143627626047933, -0.7343418357273586,
        -1.1309602963702305, -0.2634727315734922, 0.14809151662181394,
        0.18463978712254, -2.197333877363367, -1.8154888830307112
      ],
      [
        -2.419944772026472, 1.225683957914092, -0.3749722339355475,
        1.6630731498097466, -4.207759126300173, -1.8225223984959653,
        1.6534102509463382, -0.24629012049066673, 0.889906978579209,
        0.4909902338334965, -0.6645697154754792, 2.366577083725096
      ],
      [
        2.852072815655153, 0.9873064602261612, -0.7056971973916113,
        3.8071833685807097, 1.4579788316686673, -0.06583067056841026,
        5.275074376362558, 0.63008482401012, 3.656748264784474,
        -3.6816119923954242, -0.6854482349379991, 2.1864908006938406
      ],
      [
        0.31851086533892803, 1.0540131922864844, -0.38887477628635214,
        1.5122338340971342, 5.341763469083734, 1.8880713654113233,
        1.99830033502742, 1.5731765971475271, 1.7124145698070907,
        0.9297002949282122, 0.264285474722512, -2.4737386227023315
      ],
      [
        -2.9336594997181975, -1.4947520512497101, 2.0735963328432767,
        -1.3714271195157546, 7.127041127372051, -2.1680894419896144,
        -0.6635899335901371, 5.814529596881337, -0.691618994152148,
        1.6810927806487383, -0.16971892414648224, -1.7073585352468215
      ],
      [
        4.1333145312019015, -0.8738925586362422, 0.6317020617586003,
        -2.052494360967584, 6.925101241155716, 1.113526444785352,
        -3.4570476518486393, 0.7194189017599054, 1.0829028153959612,
        -1.9157509042619407, 0.0386507885797635, 2.6011447247795942
      ],
      [
        -3.0682214042057976, 0.6573755383711044, -1.0920269790432309,
        1.4729935041706894, 2.984252518519098, 0.12396537744322542,
        1.4461320205088497, 1.9810932148085354, 0.8835475771738831,
        0.7424441330337413, 0.8272072620252603, 2.906900426052686
      ],
      [
        3.6943223902106284, 0.02612226074843869, -0.9572771352542414,
        -2.4964311810948607, 4.763355258006974, 4.750063687863704,
        -2.706584758945908, 5.632547171733602, -1.6470498236701343,
        -4.603720385884463, -0.32823990424259325, 1.0226074590502663
      ],
      [
        -1.864033270802774, -0.791674638950769, 0.9774641747499733,
        1.558219540013784, 6.1395136363349545, -1.3728043292898988,
        1.1287060151591346, 6.147546686481673, 0.5950740124496215,
        0.8122626640310372, 0.7826668450773595, -5.669469555598393
      ],
      [
        -0.4276119133111797, -1.8667001183055865, 1.9832868188209316,
        -0.25017073682832097, 2.7030667719895707, 1.8429551039657712,
        -0.42202331068293525, 3.3224592661910726, -0.44504468785775736,
        -5.115456955234321, -0.7876157626473911, 2.2820739696162415
      ],
      [
        1.10323252380397, 1.0152708113450875, -1.2275751436261608,
        -1.4616388588687983, -6.2911401912593465, -0.17319941999176203,
        -2.1124312524391544, -0.9434851342813115, 1.3267169157343481,
        -1.7087687458165628, -1.0231941930569757, -3.042642762642336
      ],
      [
        0.959608480147631, 1.6706242941621317, -1.455289769262763,
        -0.39173065083381725, 0.0860279319586896, 0.9099906956720247,
        -0.12174275944169763, -2.9229506706401036, -1.171603353445523,
        1.986553178153582, 0.3807304393483293, -1.4535565395527128
      ],
      [
        -1.4317408679315273, -0.5458817347640114, 1.6379251265969341,
        4.061439933990147, 0.5037562189851214, 1.0690390333584538,
        6.004029723323558, 3.334219351150563, 2.6644249801807653,
        -3.8439745989674776, 0.11036049542213738, 2.193808536933829
      ],
      [
        1.651946078495963, -0.33498137640930115, -0.1853622789377546,
        -1.2045993749638384, 0.20246923224760746, 1.1543198132783414,
        -1.2803748215679693, -5.112573002272046, -1.0220302028363308,
        1.527683120869026, 0.7000498282547625, 2.000813417354907
      ],
      [
        1.7496103857589769, 0.10752682427411427, 0.566361770272169,
        -2.9835380463675847, 2.226077226507068, 0.9014767031454559,
        -4.469526581442027, 2.5929477801064986, -2.802504658956465,
        -2.860724829351307, 0.7245214850912023, -1.9234022696237798
      ],
      [
        1.17535929535546, 1.7882429951843906, 0.5702621087935474,
        -0.6094548522984169, 2.0250051002775895, 2.226466827236877,
        -0.2689120798441862, -1.4168271040684937, -0.4950220385290041,
        0.49674002229924696, 1.8094926188122198, 0.24527720632384722
      ]
    ],
    "bias": [
      [
        -3.0814981770001864, 0.4221843049666627, -0.7871819334763467,
        -1.6319121209658087, -2.2915647719637433, -1.7831541654725314,
        0.5322624585556506, 2.6668083785635783, 0.42250497378691104,
        -1.0425808582071159, 0.27083036269200034, 0.34162773035802146
      ]
    ]
  },
  {
    "weights": [
      [
        0.7575050805176641, -1.5411369878241523, 2.706753479809929,
        0.004764303268146215, -0.04187396897054401, 0.8481502365460688,
        -0.044200465316147956, -0.02789052742664088, 0.0010131927903038406
      ],
      [
        -0.027229359054725195, 0.02879443009574391, -0.006864444562425033,
        0.025677047032154017, -0.03506256274543, 0.9532463598940092,
        0.7132931224103504, 0.5557293443547711, -0.002571484549120938
      ],
      [
        -0.023786696481657772, -0.008588547047106923, -0.005807813948774538,
        0.034620309383015885, -0.03180597779754769, 0.969282529422158,
        0.713405474410759, 0.543728863368215, -0.0031227953616368514
      ],
      [
        -2.0485817975083624, -0.021220836036139733, 0.0014672498976854391,
        -0.011493890075668343, 0.6433553693780425, 3.8924021394156654,
        0.11215386341822986, -0.0016149775348832203, 0.0014004592607448159
      ],
      [
        0.00618204272190704, 0.06347726298673302, -0.0023538362521480518,
        -0.002627622043330599, 0.005910584874740614, -0.12611436270773363,
        -1.1989300217995864, 0.9759500093582347, 0.0008844148124041672
      ],
      [
        -2.724970788056251, -2.5772373200763616, -0.0006393740398000655,
        -0.01797052233669925, 0.04289052461880696, -0.045285816645986264,
        0.03993906147318432, -0.0005373861407748915, 7.512943987509091e-6
      ],
      [
        -0.6399551292775839, 0.06760523723655146, -0.00099745894283757,
        0.0050296741799964306, -3.9888050117403857, -0.8483780751516623,
        -0.13707536897217332, -0.10226507676160099, -0.0013171423434556698
      ],
      [
        -0.002114483697267677, -0.003539209161310699, 0.00022854135314422712,
        0.010876239674319855, -0.008887246441132186, 0.003265944338939686,
        1.234937648542677, 0.015744198727154653, -1.493669311784947
      ],
      [
        2.669770115626338, -0.12529309024916882, 0.000567672872828184,
        0.00742921493336729, -0.6798898581653929, 0.22175004520185443,
        -0.01829427858753837, 0.10919118857402589, 0.0005728237072536899
      ],
      [
        0.014941146279107306, -2.6307719533138196, -0.0009152958193818866,
        1.5176757632806341, -0.010314890098375053, 0.03535095906178461,
        0.03712414559419436, 0.0046400220516912005, -0.001703918471256742
      ],
      [
        -0.02737981968573017, -0.08117760857973018, 0.002129110157832472,
        1.7678202228866067, -0.02319839225919419, -0.023386009503351082,
        -0.04819002321850873, -0.00024807539778550636, 0.0003601870914169244
      ],
      [
        2.8499730900707227, -0.006297417609113038, -0.0019744229161742627,
        0.0047039665195049716, 0.0004790822344788475, -0.012597846921996878,
        0.0014361509043675984, -0.0017887443795089814, -0.0014765267651145701
      ]
    ],
    "bias": [
      [
        0.8451542399031167, -1.4730101738180867, 2.7035008015420257,
        3.255092612510791, 4.015279128385259, 3.927597901029731,
        0.0008303106317915075, 0.9462928811215418, 1.4930514113978077
      ]
    ]
  }
]
