[{"weights": [[-0.6917434158799566, 1.8215960668875555, 1.9373441609412458, 1.1960134650671967, 0.048107589525501857], [0.11712012945799719, 0.9674910100569301, -0.7522596490930497, -1.174074916296411, 1.1069699710125054], [0.3097579933267496, -0.5178396674632879, -0.6602991991378416, 0.2330718720490662, -0.7022675864957675], [3.144561498895672, 3.629797601140826, -1.8140560790990015, 3.7930965471982305, -2.724602431755089], [-2.5742578931776317, -1.5417360456750417, 4.508368024801694, 1.4334024013597881, 5.869959767572973], [3.338389820010387, -9.753828897891218, -0.3744924884072495, -4.651075131031483, -2.3596733414599913], [3.7628620913159483, 1.9560909947117051, -2.727564942766328, 2.7765179397261748, 0.12150310153470677], [-6.6845964522965104, -0.9387918935597234, 5.121288753103059, -5.163858542705756, 0.9686471899027491]], "bias": [[-1.0459220392976232, 2.7148408196948792, 1.010442338889001, -1.032417803640927, 1.4511542013375884]]}, {"weights": [[5.719306770028532, -0.004818111030545696, -2.7448056048969973], [5.830623064931971, 0.6180250769698167, -5.380853871315164], [-6.752299167525341, 0.7085220620309485, -1.9404143249818984], [5.030852794123153, 0.7800577062846376, -0.1554638588835646], [1.8764343708163225, 1.2198289512783154, -5.6529015412536925]], "bias": [[-3.215390490782723, -1.6460905035515339, -0.9225514177951822]]}, {"weights": [[3.285217776236558], [0.04210155551413265], [0.8245865197540769]], "bias": [[4.130943908811353]]}]